digraph Tree {
node [shape=box] ;
0 [label="X[0] <= 5.45\ngini = 0.493\nsamples = 70\nvalue = [31, 39]"] ;
1 [label="X[1] <= 2.8\ngini = 0.18\nsamples = 30\nvalue = [27, 3]"] ;
0 -> 1 [labeldistance=2.5, labelangle=45, headlabel="True"] ;
2 [label="X[0] <= 4.75\ngini = 0.444\nsamples = 3\nvalue = [1, 2]"] ;
1 -> 2 ;
3 [label="gini = 0.0\nsamples = 1\nvalue = [1, 0]"] ;
2 -> 3 ;
4 [label="gini = 0.0\nsamples = 2\nvalue = [0, 2]"] ;
2 -> 4 ;
5 [label="X[0] <= 5.3\ngini = 0.071\nsamples = 27\nvalue = [26, 1]"] ;
1 -> 5 ;
6 [label="gini = 0.0\nsamples = 23\nvalue = [23, 0]"] ;
5 -> 6 ;
7 [label="X[1] <= 3.35\ngini = 0.375\nsamples = 4\nvalue = [3, 1]"] ;
5 -> 7 ;
8 [label="gini = 0.0\nsamples = 1\nvalue = [0, 1]"] ;
7 -> 8 ;
9 [label="gini = 0.0\nsamples = 3\nvalue = [3, 0]"] ;
7 -> 9 ;
10 [label="X[1] <= 3.45\ngini = 0.18\nsamples = 40\nvalue = [4, 36]"] ;
0 -> 10 [labeldistance=2.5, labelangle=-45, headlabel="False"] ;
11 [label="gini = 0.0\nsamples = 36\nvalue = [0, 36]"] ;
10 -> 11 ;
12 [label="gini = 0.0\nsamples = 4\nvalue = [4, 0]"] ;
10 -> 12 ;
}